{
  "model_type": "deep_mlp",
  "architecture": {
    "input_dim": 2,
    "hidden_dim": 16,
    "hidden_layers": [
      16,
      8
    ],
    "hidden_activation": "relu",
    "output_dim": 1,
    "num_layers": 3
  },
  "parameters": {
    "layers": [
      {
        "input_dim": 2,
        "output_dim": 16,
        "weights": [
          [
            -0.903828,
            0.673036,
            1.485652,
            -0.672649,
            -1.672634,
            -0.537589,
            1.127132,
            -0.518031,
            -1.277949,
            -1.386356,
            1.135496,
            -1.456617,
            0.058836,
            0.562991,
            0.843869,
            1.598812
          ],
          [
            -1.04556,
            -0.044155,
            0.148218,
            0.234918,
            0.10485,
            0.691276,
            0.538119,
            1.12005,
            0.241411,
            -0.828824,
            1.236869,
            1.376903,
            1.502685,
            -0.721204,
            -1.28451,
            -1.024374
          ]
        ],
        "bias": [
          0.065418,
          0.294333,
          0.340669,
          -0.0037,
          0.062577,
          -0.096275,
          0.293496,
          0.101784,
          0.03285,
          0.045015,
          0.351818,
          -0.051058,
          -0.123691,
          0.293648,
          -0.005954,
          -0.068285
        ]
      },
      {
        "input_dim": 16,
        "output_dim": 8,
        "weights": [
          [
            0.53209,
            0.646335,
            -0.034546,
            0.421302,
            -0.119325,
            -0.286204,
            -0.384815,
            -0.055057
          ],
          [
            0.130082,
            0.872029,
            -0.051286,
            0.484799,
            0.335234,
            0.03402,
            0.756064,
            0.224487
          ],
          [
            0.532001,
            0.139711,
            -0.295428,
            -0.275496,
            -0.196325,
            0.795974,
            -0.267988,
            0.198133
          ],
          [
            -0.275843,
            0.538917,
            0.125249,
            -0.370222,
            -0.265633,
            0.34413,
            -0.06032,
            -0.059909
          ],
          [
            0.361005,
            0.580686,
            0.553787,
            -0.52772,
            -0.267436,
            -0.315221,
            0.100314,
            0.104881
          ],
          [
            -0.235683,
            -0.300906,
            0.009957,
            0.28741,
            0.07631,
            0.085051,
            0.151144,
            -0.000335
          ],
          [
            0.710317,
            0.686182,
            -0.027179,
            -0.548978,
            0.656429,
            0.40413,
            0.590621,
            -0.559064
          ],
          [
            0.245613,
            0.116882,
            -0.229683,
            0.333763,
            -0.130403,
            0.449018,
            0.58906,
            -0.068998
          ],
          [
            0.316126,
            0.512298,
            -0.425193,
            0.514736,
            -0.388336,
            0.347772,
            0.098915,
            -0.214555
          ],
          [
            0.620166,
            -0.354818,
            -0.49516,
            -0.149424,
            0.2331,
            0.196796,
            0.163562,
            0.041343
          ],
          [
            0.278895,
            -0.146556,
            0.112587,
            -0.085239,
            0.678123,
            0.183974,
            0.278461,
            -0.065699
          ],
          [
            -0.54557,
            0.577297,
            -0.20736,
            -0.230541,
            0.310798,
            -0.266065,
            -0.092035,
            8e-06
          ],
          [
            -0.307287,
            0.224222,
            -0.111984,
            -0.302314,
            -0.030457,
            -0.4289,
            0.267523,
            -0.238256
          ],
          [
            -0.093165,
            0.594899,
            0.251092,
            0.365416,
            0.20697,
            0.333759,
            0.309496,
            -0.620709
          ],
          [
            0.470951,
            -0.273006,
            -0.079644,
            0.073184,
            0.352511,
            -0.203087,
            -0.091263,
            0.079947
          ],
          [
            -0.222255,
            0.298483,
            0.443186,
            0.363495,
            0.609041,
            0.102858,
            0.064985,
            0.430638
          ]
        ],
        "bias": [
          0.283789,
          0.288705,
          -0.151401,
          -0.084539,
          0.283038,
          0.272422,
          0.262152,
          -0.116465
        ]
      },
      {
        "input_dim": 8,
        "output_dim": 1,
        "weights": [
          [
            1.086556
          ],
          [
            0.795219
          ],
          [
            -0.360811
          ],
          [
            -0.164076
          ],
          [
            0.883024
          ],
          [
            0.932577
          ],
          [
            0.51959
          ],
          [
            -0.617836
          ]
        ],
        "bias": [
          0.266371
        ]
      }
    ]
  }
}